digraph Tree {
node [shape=box, style="filled, rounded", color="black", fontname="helvetica"] ;
edge [fontname="helvetica"] ;
0 [label=<alpha &le; 0.48<br/>gini = 0.467<br/>samples = 501<br/>value = [315, 186]<br/>class = Not Alpha>, fillcolor="#f4cbae"] ;
1 [label=<alpha &le; 0.109<br/>gini = 0.492<br/>samples = 310<br/>value = [174, 136]<br/>class = Not Alpha>, fillcolor="#f9e3d4"] ;
0 -> 1 [labeldistance=2.5, labelangle=45, headlabel="True"] ;
2 [label=<gini = 0.0<br/>samples = 5<br/>value = [0, 5]<br/>class = Alpha>, fillcolor="#399de5"] ;
1 -> 2 ;
3 [label=<alpha &le; 0.154<br/>gini = 0.49<br/>samples = 305<br/>value = [174, 131]<br/>class = Not Alpha>, fillcolor="#f9e0ce"] ;
1 -> 3 ;
4 [label=<alpha &le; 0.126<br/>gini = 0.188<br/>samples = 19<br/>value = [17, 2]<br/>class = Not Alpha>, fillcolor="#e89050"] ;
3 -> 4 ;
5 [label=<gini = 0.0<br/>samples = 7<br/>value = [7, 0]<br/>class = Not Alpha>, fillcolor="#e58139"] ;
4 -> 5 ;
6 [label=<alpha &le; 0.129<br/>gini = 0.278<br/>samples = 12<br/>value = [10, 2]<br/>class = Not Alpha>, fillcolor="#ea9a61"] ;
4 -> 6 ;
7 [label=<gini = 0.0<br/>samples = 1<br/>value = [0, 1]<br/>class = Alpha>, fillcolor="#399de5"] ;
6 -> 7 ;
8 [label=<gini = 0.165<br/>samples = 11<br/>value = [10, 1]<br/>class = Not Alpha>, fillcolor="#e88e4d"] ;
6 -> 8 ;
9 [label=<alpha &le; 0.161<br/>gini = 0.495<br/>samples = 286<br/>value = [157, 129]<br/>class = Not Alpha>, fillcolor="#fae9dc"] ;
3 -> 9 ;
10 [label=<gini = 0.0<br/>samples = 3<br/>value = [0, 3]<br/>class = Alpha>, fillcolor="#399de5"] ;
9 -> 10 ;
11 [label=<alpha &le; 0.3<br/>gini = 0.494<br/>samples = 283<br/>value = [157.0, 126.0]<br/>class = Not Alpha>, fillcolor="#fae6d8"] ;
9 -> 11 ;
12 [label=<gini = 0.46<br/>samples = 92<br/>value = [59, 33]<br/>class = Not Alpha>, fillcolor="#f4c7a8"] ;
11 -> 12 ;
13 [label=<gini = 0.5<br/>samples = 191<br/>value = [98, 93]<br/>class = Not Alpha>, fillcolor="#fef9f5"] ;
11 -> 13 ;
14 [label=<alpha &le; 0.624<br/>gini = 0.387<br/>samples = 191<br/>value = [141, 50]<br/>class = Not Alpha>, fillcolor="#eeae7f"] ;
0 -> 14 [labeldistance=2.5, labelangle=-45, headlabel="False"] ;
15 [label=<alpha &le; 0.617<br/>gini = 0.419<br/>samples = 144<br/>value = [101, 43]<br/>class = Not Alpha>, fillcolor="#f0b78d"] ;
14 -> 15 ;
16 [label=<alpha &le; 0.517<br/>gini = 0.411<br/>samples = 142<br/>value = [101.0, 41.0]<br/>class = Not Alpha>, fillcolor="#f0b489"] ;
15 -> 16 ;
17 [label=<alpha &le; 0.513<br/>gini = 0.339<br/>samples = 60<br/>value = [47, 13]<br/>class = Not Alpha>, fillcolor="#eca470"] ;
16 -> 17 ;
18 [label=<gini = 0.375<br/>samples = 52<br/>value = [39, 13]<br/>class = Not Alpha>, fillcolor="#eeab7b"] ;
17 -> 18 ;
19 [label=<gini = 0.0<br/>samples = 8<br/>value = [8, 0]<br/>class = Not Alpha>, fillcolor="#e58139"] ;
17 -> 19 ;
20 [label=<alpha &le; 0.581<br/>gini = 0.45<br/>samples = 82<br/>value = [54.0, 28.0]<br/>class = Not Alpha>, fillcolor="#f2c2a0"] ;
16 -> 20 ;
21 [label=<gini = 0.483<br/>samples = 59<br/>value = [35, 24]<br/>class = Not Alpha>, fillcolor="#f7d7c1"] ;
20 -> 21 ;
22 [label=<gini = 0.287<br/>samples = 23<br/>value = [19, 4]<br/>class = Not Alpha>, fillcolor="#ea9c63"] ;
20 -> 22 ;
23 [label=<gini = 0.0<br/>samples = 2<br/>value = [0, 2]<br/>class = Alpha>, fillcolor="#399de5"] ;
15 -> 23 ;
24 [label=<alpha &le; 0.639<br/>gini = 0.254<br/>samples = 47<br/>value = [40, 7]<br/>class = Not Alpha>, fillcolor="#ea975c"] ;
14 -> 24 ;
25 [label=<gini = 0.0<br/>samples = 6<br/>value = [6, 0]<br/>class = Not Alpha>, fillcolor="#e58139"] ;
24 -> 25 ;
26 [label=<alpha &le; 0.644<br/>gini = 0.283<br/>samples = 41<br/>value = [34.0, 7.0]<br/>class = Not Alpha>, fillcolor="#ea9b62"] ;
24 -> 26 ;
27 [label=<gini = 0.0<br/>samples = 1<br/>value = [0, 1]<br/>class = Alpha>, fillcolor="#399de5"] ;
26 -> 27 ;
28 [label=<alpha &le; 0.658<br/>gini = 0.255<br/>samples = 40<br/>value = [34, 6]<br/>class = Not Alpha>, fillcolor="#ea975c"] ;
26 -> 28 ;
29 [label=<gini = 0.0<br/>samples = 7<br/>value = [7, 0]<br/>class = Not Alpha>, fillcolor="#e58139"] ;
28 -> 29 ;
30 [label=<gini = 0.298<br/>samples = 33<br/>value = [27, 6]<br/>class = Not Alpha>, fillcolor="#eb9d65"] ;
28 -> 30 ;
}